FANN_FLO_2.1
num_layers=3
learning_rate=0.700000
connection_rate=1.000000
network_type=0
learning_momentum=0.000000
training_algorithm=2
train_error_function=1
train_stop_function=0
cascade_output_change_fraction=0.010000
quickprop_decay=-0.000100
quickprop_mu=1.750000
rprop_increase_factor=1.200000
rprop_decrease_factor=0.500000
rprop_delta_min=0.000000
rprop_delta_max=50.000000
rprop_delta_zero=0.100000
cascade_output_stagnation_epochs=12
cascade_candidate_change_fraction=0.010000
cascade_candidate_stagnation_epochs=12
cascade_max_out_epochs=150
cascade_min_out_epochs=50
cascade_max_cand_epochs=150
cascade_min_cand_epochs=50
cascade_num_candidate_groups=2
bit_fail_limit=3.49999994039535522461e-01
cascade_candidate_limit=1.00000000000000000000e+03
cascade_weight_multiplier=4.00000005960464477539e-01
cascade_activation_functions_count=10
cascade_activation_functions=3 5 7 8 10 11 14 15 16 17 
cascade_activation_steepnesses_count=4
cascade_activation_steepnesses=2.50000000000000000000e-01 5.00000000000000000000e-01 7.50000000000000000000e-01 1.00000000000000000000e+00 
layer_sizes=27 14 5 
scale_included=0
neurons (num_inputs, activation_function, activation_steepness)=(0, 0, 0.00000000000000000000e+00) (0, 0, 0.00000000000000000000e+00) (0, 0, 0.00000000000000000000e+00) (0, 0, 0.00000000000000000000e+00) (0, 0, 0.00000000000000000000e+00) (0, 0, 0.00000000000000000000e+00) (0, 0, 0.00000000000000000000e+00) (0, 0, 0.00000000000000000000e+00) (0, 0, 0.00000000000000000000e+00) (0, 0, 0.00000000000000000000e+00) (0, 0, 0.00000000000000000000e+00) (0, 0, 0.00000000000000000000e+00) (0, 0, 0.00000000000000000000e+00) (0, 0, 0.00000000000000000000e+00) (0, 0, 0.00000000000000000000e+00) (0, 0, 0.00000000000000000000e+00) (0, 0, 0.00000000000000000000e+00) (0, 0, 0.00000000000000000000e+00) (0, 0, 0.00000000000000000000e+00) (0, 0, 0.00000000000000000000e+00) (0, 0, 0.00000000000000000000e+00) (0, 0, 0.00000000000000000000e+00) (0, 0, 0.00000000000000000000e+00) (0, 0, 0.00000000000000000000e+00) (0, 0, 0.00000000000000000000e+00) (0, 0, 0.00000000000000000000e+00) (0, 0, 0.00000000000000000000e+00) (27, 4, 5.00000000000000000000e-01) (27, 4, 5.00000000000000000000e-01) (27, 4, 5.00000000000000000000e-01) (27, 4, 5.00000000000000000000e-01) (27, 4, 5.00000000000000000000e-01) (27, 4, 5.00000000000000000000e-01) (27, 4, 5.00000000000000000000e-01) (27, 4, 5.00000000000000000000e-01) (27, 4, 5.00000000000000000000e-01) (27, 4, 5.00000000000000000000e-01) (27, 4, 5.00000000000000000000e-01) (27, 4, 5.00000000000000000000e-01) (27, 4, 5.00000000000000000000e-01) (0, 0, 0.00000000000000000000e+00) (14, 4, 5.00000000000000000000e-01) (14, 4, 5.00000000000000000000e-01) (14, 4, 5.00000000000000000000e-01) (14, 4, 5.00000000000000000000e-01) (0, 0, 0.00000000000000000000e+00) 
connections (connected_to_neuron, weight)=(0, 6.13242328166961669922e-01) (1, 5.89602088928222656250e+00) (2, -6.77283629775047302246e-02) (3, 5.51355552673339843750e+00) (4, 8.65548896789550781250e+00) (5, 2.24291110038757324219e+00) (6, 1.51171913146972656250e+01) (7, -3.86353522539138793945e-01) (8, 1.85938739776611328125e+00) (9, 1.51800785064697265625e+01) (10, 1.04954872131347656250e+01) (11, 1.90758037567138671875e+00) (12, 1.92043781280517578125e+00) (13, 6.21773719787597656250e+00) (14, -7.92690200805664062500e+01) (15, 1.48234796524047851562e+00) (16, 1.90521264076232910156e+00) (17, 5.48237228393554687500e+00) (18, 5.49017715454101562500e+00) (19, 2.46846747398376464844e+00) (20, 3.11043815612792968750e+01) (21, 8.06156158447265625000e+00) (22, -3.71112418174743652344e+00) (23, 4.58663892745971679688e+00) (24, -2.52704635620117187500e+02) (25, 5.93020401000976562500e+01) (26, 1.94525432586669921875e+00) (0, 5.53621625900268554688e+00) (1, 5.08050978183746337891e-01) (2, 4.80688285827636718750e+00) (3, 2.06152415275573730469e+00) (4, 4.86808091402053833008e-01) (5, -1.23972692489624023438e+01) (6, 9.24016237258911132812e-01) (7, -1.22981710433959960938e+01) (8, 5.93536794185638427734e-01) (9, 9.05980873107910156250e+00) (10, -1.25394928455352783203e+00) (11, 5.04153347015380859375e+00) (12, 9.10003662109375000000e-01) (13, 5.75750946998596191406e-01) (14, 2.93874764442443847656e+00) (15, 6.95975303649902343750e+00) (16, 4.07608184814453125000e+02) (17, 6.59007489681243896484e-01) (18, 6.66774868965148925781e-01) (19, -2.80599206686019897461e-01) (20, 4.81111812591552734375e+00) (21, 7.37354278564453125000e-01) (22, -1.26792396545410156250e+02) (23, -2.15422534942626953125e+00) (24, -1.33515914916992187500e+02) (25, 1.25816750526428222656e+00) (26, 5.61550140380859375000e-01) (0, 2.69095230102539062500e+00) (1, 7.18807935714721679688e+00) (2, 1.34136748313903808594e+00) (3, 1.65124011039733886719e+00) (4, -1.14018988609313964844e+00) (5, -4.40500307083129882812e+00) (6, 3.78574347496032714844e+00) (7, 2.13239250183105468750e+01) (8, 4.15616095066070556641e-01) (9, -2.52376377582550048828e-01) (10, 6.30130538940429687500e+01) (11, -4.59047168493270874023e-01) (12, -4.15689438581466674805e-01) (13, 6.01833760738372802734e-01) (14, 1.01536357402801513672e+00) (15, -2.69482250213623046875e+01) (16, -3.08962535858154296875e+01) (17, 9.90423262119293212891e-01) (18, -8.80920886993408203125e-01) (19, -1.20308637619018554688e+00) (20, -4.50589323043823242188e+00) (21, -1.54516506195068359375e+00) (22, 2.47794174194335937500e+02) (23, -7.94744018554687500000e+02) (24, 3.10682800292968750000e+02) (25, 2.14940414428710937500e+01) (26, 2.18235597014427185059e-01) (0, 7.21094751358032226562e+00) (1, -2.67978057861328125000e+01) (2, 7.18177843093872070312e+00) (3, 8.18365514278411865234e-01) (4, -8.90930965542793273926e-02) (5, -8.89314556121826171875e+00) (6, -2.68427810668945312500e+01) (7, -7.41066665649414062500e+01) (8, 1.95007276535034179688e+00) (9, 3.49442660808563232422e-01) (10, -5.07724121093750000000e+02) (11, 6.45184659957885742188e+00) (12, 2.53604531288146972656e+00) (13, -8.76663625240325927734e-02) (14, 1.06168355941772460938e+01) (15, 6.45835351943969726562e+00) (16, 9.02335968017578125000e+01) (17, 5.75135350227355957031e-01) (18, 8.28271090984344482422e-01) (19, 1.68740177154541015625e+00) (20, -1.35066304355859756470e-02) (21, 3.57891559600830078125e-01) (22, -1.43055664062500000000e+02) (23, 9.12141144275665283203e-01) (24, 4.44421844482421875000e+01) (25, -2.42473268508911132812e+00) (26, 1.76669049263000488281e+00) (0, 6.36674225330352783203e-01) (1, 8.22852611541748046875e-01) (2, 4.42438036203384399414e-01) (3, 3.18007081747055053711e-01) (4, 2.27760881185531616211e-01) (5, 4.66231018304824829102e-01) (6, 1.32941162586212158203e+00) (7, 5.33783102035522460938e+00) (8, 2.08074823021888732910e-01) (9, 3.10133546590805053711e-01) (10, 2.01304931640625000000e+01) (11, 2.01878637075424194336e-01) (12, 2.18158334493637084961e-01) (13, 2.78121590614318847656e-01) (14, 5.98960340023040771484e-01) (15, -4.14630979299545288086e-01) (16, -9.56748366355895996094e-01) (17, 3.41262638568878173828e-01) (18, 5.46170696616172790527e-02) (19, 1.46097466349601745605e-01) (20, -9.94829311966896057129e-02) (21, 1.48052647709846496582e-02) (22, 9.67055511474609375000e+00) (23, -1.59589643478393554688e+01) (24, 2.94716644287109375000e+00) (25, 2.20224113464355468750e+01) (26, 1.93775132298469543457e-01) (0, -1.77023792266845703125e+01) (1, 4.39459753036499023438e+00) (2, -7.54204463958740234375e+00) (3, -3.43980693817138671875e+00) (4, 1.73250481486320495605e-01) (5, 1.73303241729736328125e+01) (6, 6.69600486755371093750e+00) (7, 2.35540542602539062500e+02) (8, -9.25841510295867919922e-01) (9, -9.11178350448608398438e-01) (10, 1.14306320190429687500e+02) (11, -1.33749258518218994141e+00) (12, -8.70817482471466064453e-01) (13, 6.32172048091888427734e-01) (14, -1.19238796234130859375e+01) (15, -1.68858432769775390625e+00) (16, -5.85398941040039062500e+01) (17, -7.91737344115972518921e-03) (18, -2.12821085005998611450e-02) (19, 6.96685552597045898438e+00) (20, 1.67982459068298339844e+00) (21, 3.88036876916885375977e-01) (22, 2.73907104492187500000e+02) (23, 2.33557486534118652344e+00) (24, -6.61910390853881835938e+00) (25, -4.92346644401550292969e-01) (26, -3.55017930269241333008e-01) (0, 2.56076455116271972656e-01) (1, 3.52350860834121704102e-01) (2, 3.52684944868087768555e-01) (3, 2.08313211798667907715e-01) (4, 2.45175123214721679688e-01) (5, 5.20268142223358154297e-01) (6, 1.78039580583572387695e-01) (7, 6.26070857048034667969e-01) (8, 3.01207304000854492188e-01) (9, 1.14968873560428619385e-01) (10, 2.73884582519531250000e+00) (11, 3.45847576856613159180e-01) (12, 3.45158874988555908203e-01) (13, 2.69567906856536865234e-01) (14, 4.04868811368942260742e-01) (15, 1.66202738881111145020e-01) (16, 2.59689867496490478516e-01) (17, 2.63135582208633422852e-01) (18, 3.32029759883880615234e-01) (19, 2.22805082798004150391e-01) (20, 2.69676983356475830078e-01) (21, 2.91510730981826782227e-01) (22, 6.93256676197052001953e-01) (23, -1.35987341403961181641e+00) (24, 1.77358579635620117188e+00) (25, 1.12919569015502929688e+00) (26, 2.83875018358230590820e-01) (0, -5.05686521530151367188e-01) (1, 1.09171271324157714844e+00) (2, -1.34508267045021057129e-01) (3, 9.50942099094390869141e-01) (4, 7.65571594238281250000e+00) (5, 1.65768361091613769531e+00) (6, 1.43712735176086425781e+00) (7, -2.84533953666687011719e+00) (8, 1.16901767253875732422e+00) (9, 7.65048217773437500000e+00) (10, 1.11950278282165527344e+00) (11, 1.20343554019927978516e+00) (12, 1.35780704021453857422e+00) (13, 1.23878622055053710938e+00) (14, -4.28480796813964843750e+01) (15, 3.09609603881835937500e+00) (16, 4.34165344238281250000e+01) (17, 1.27750718593597412109e+00) (18, 1.48260295391082763672e+00) (19, 1.15114009380340576172e+00) (20, 1.79908275604248046875e+01) (21, 3.35723257064819335938e+00) (22, -3.73107185363769531250e+01) (23, 5.34860343933105468750e+01) (24, -2.83901611328125000000e+02) (25, 2.54853892326354980469e+00) (26, 1.29707229137420654297e+00) (0, 4.06822013854980468750e+00) (1, 2.48926854133605957031e+00) (2, 3.82019257545471191406e+00) (3, 7.66513645648956298828e-01) (4, 6.88100039958953857422e-01) (5, 3.70033574104309082031e+00) (6, -6.56469583511352539062e+00) (7, 1.67405259609222412109e+00) (8, 8.08738648891448974609e-01) (9, 3.17523598670959472656e+00) (10, -2.28943252563476562500e+02) (11, 9.51720237731933593750e+00) (12, 1.85252046585083007812e+00) (13, 5.61174333095550537109e-01) (14, 6.65870332717895507812e+00) (15, 1.64618167877197265625e+01) (16, 4.77482513427734375000e+02) (17, 8.95550668239593505859e-01) (18, 2.03113770484924316406e+00) (19, 7.23634600639343261719e-01) (20, 3.02592062950134277344e+00) (21, 1.98776435852050781250e+00) (22, -7.62204408645629882812e+00) (23, 1.04011840820312500000e+02) (24, 1.26107276916503906250e+02) (25, -1.76834793090820312500e+02) (26, 8.31770360469818115234e-01) (0, -1.43172311782836914062e+00) (1, -1.78983235359191894531e+00) (2, -1.57877588272094726562e+00) (3, -1.57030797004699707031e+00) (4, 9.26412105560302734375e-01) (5, 3.51754426956176757812e+00) (6, -1.86300051212310791016e+00) (7, -2.33029663562774658203e-01) (8, 1.58023104071617126465e-01) (9, 2.03367993235588073730e-01) (10, -8.03540992736816406250e+00) (11, 1.06242144107818603516e+00) (12, 6.90554618835449218750e-01) (13, -2.26984047889709472656e+00) (14, -3.90240371227264404297e-01) (15, 8.34994697570800781250e+00) (16, 4.68290388584136962891e-01) (17, 4.55318801105022430420e-02) (18, 1.77281773090362548828e+00) (19, 1.32347812652587890625e+01) (20, 5.55523061752319335938e+00) (21, 3.36249780654907226562e+00) (22, -9.88264858722686767578e-01) (23, 5.55028747558593750000e+02) (24, 6.75615519285202026367e-02) (25, -5.83898559570312500000e+02) (26, 2.11778562515974044800e-03) (0, 2.80616074800491333008e-01) (1, 1.06406414508819580078e+00) (2, 3.82057815790176391602e-01) (3, 1.21341601014137268066e-01) (4, -4.97059202194213867188e+00) (5, 6.66517257690429687500e-01) (6, 5.01861095428466796875e-01) (7, 2.40445384979248046875e+01) (8, 1.92848905920982360840e-01) (9, -5.40473031997680664062e+00) (10, 1.14515190124511718750e+01) (11, -5.51179468631744384766e-01) (12, -5.34346960484981536865e-02) (13, -8.21091756224632263184e-02) (14, 1.85655260086059570312e+00) (15, -1.01708006858825683594e+00) (16, -7.02717132568359375000e+01) (17, 3.11549808830022811890e-02) (18, -8.40652644634246826172e-01) (19, -4.73444223403930664062e-01) (20, -5.14614629745483398438e+00) (21, -1.71793341636657714844e+00) (22, 1.75293792724609375000e+02) (23, -7.40717172622680664062e+00) (24, 2.64151672363281250000e+02) (25, 1.30642390251159667969e+00) (26, 1.81719493120908737183e-02) (0, 5.98285138607025146484e-01) (1, 1.30423593521118164062e+00) (2, 4.44081068038940429688e-01) (3, 4.57580417394638061523e-01) (4, -4.95350980758666992188e+00) (5, 5.58699131011962890625e-01) (6, 9.81920778751373291016e-01) (7, 3.03160877227783203125e+01) (8, 3.52214664220809936523e-01) (9, -2.55545496940612792969e+00) (10, 1.22454605102539062500e+01) (11, -8.23532581329345703125e-01) (12, -5.39220452308654785156e-01) (13, 9.59531188011169433594e-01) (14, 3.04095792770385742188e+00) (15, -1.07288908958435058594e+00) (16, -3.82116508483886718750e+01) (17, 2.94776409864425659180e-01) (18, -1.42793965339660644531e+00) (19, -7.50912874937057495117e-02) (20, -6.87061548233032226562e+00) (21, -6.78056192398071289062e+00) (22, 7.95740203857421875000e+01) (23, -9.35738830566406250000e+01) (24, 2.64014038085937500000e+02) (25, 4.71727657318115234375e+00) (26, 5.25331981480121612549e-02) (0, -5.29352521896362304688e+00) (1, 4.87443876266479492188e+00) (2, -4.67525720596313476562e+00) (3, -1.63880658149719238281e+00) (4, 2.47939729690551757812e+00) (5, 1.73264446258544921875e+01) (6, 1.65193977355957031250e+01) (7, 2.35529541015625000000e+02) (8, -2.67126381397247314453e-01) (9, -5.60054659843444824219e-01) (10, 1.14262313842773437500e+02) (11, -2.78346610069274902344e+00) (12, -6.43678367137908935547e-01) (13, 1.12037897109985351562e+00) (14, -4.15025405883789062500e+01) (15, 2.87815451622009277344e+00) (16, -5.86295700073242187500e+01) (17, 5.59498369693756103516e-01) (18, 2.74450063705444335938e-01) (19, 7.19094228744506835938e+00) (20, 1.61363792419433593750e+00) (21, 2.18264436721801757812e+00) (22, 2.73958740234375000000e+02) (23, 7.59672393798828125000e+01) (24, -2.23676681518554687500e+00) (25, -3.97404365539550781250e+01) (26, -1.02464526891708374023e-01) (27, -3.30921268463134765625e+00) (28, -6.13391447067260742188e+00) (29, 8.75374555587768554688e-01) (30, 1.74377858638763427734e-01) (31, -1.01085014641284942627e-01) (32, 1.07633972167968750000e+00) (33, -1.28510966897010803223e-01) (34, -7.87511348724365234375e+00) (35, 4.81531381607055664062e-01) (36, 8.45155715942382812500e-02) (37, 8.82783293724060058594e-01) (38, 8.87766122817993164062e-01) (39, 1.39082789421081542969e+00) (40, -1.85839861631393432617e-01) (27, 3.55233049392700195312e+00) (28, 2.78044462203979492188e-01) (29, -7.77922916412353515625e+00) (30, 3.30773860216140747070e-01) (31, -2.58055299520492553711e-01) (32, -5.72019934654235839844e-01) (33, -2.33285099267959594727e-01) (34, 3.59620809555053710938e+00) (35, 3.94246608018875122070e-01) (36, 2.17870593070983886719e+00) (37, -1.45270562171936035156e+00) (38, -1.50119709968566894531e+00) (39, -4.16052609682083129883e-01) (40, -1.52765661478042602539e-01) (27, -9.57698583602905273438e-01) (28, 1.97102689743041992188e+00) (29, 2.29484617710113525391e-01) (30, 2.05483365058898925781e+00) (31, 1.02125778794288635254e-01) (32, -6.95043277740478515625e+00) (33, 6.73779472708702087402e-02) (34, -8.16712856292724609375e-01) (35, 1.96255016326904296875e+00) (36, -1.29852637648582458496e-01) (37, 1.07681155204772949219e-02) (38, 1.57534614205360412598e-01) (39, -1.04187669754028320312e+01) (40, 2.49110996723175048828e-01) (27, 3.90166616439819335938e+00) (28, 4.23446536064147949219e-01) (29, 2.38981872797012329102e-01) (30, 4.37319993972778320312e-01) (31, -1.36975675821304321289e-01) (32, 3.50490957498550415039e-01) (33, -2.52907872200012207031e-01) (34, 3.83733367919921875000e+00) (35, -5.03584814071655273438e+00) (36, 1.24068260192871093750e-01) (37, -8.88941138982772827148e-02) (38, -6.23477287590503692627e-02) (39, 1.00103044509887695312e+00) (40, -2.62914001941680908203e-01) 
