FANN_FLO_2.1
num_layers=3
learning_rate=0.700000
connection_rate=1.000000
network_type=0
learning_momentum=0.000000
training_algorithm=2
train_error_function=1
train_stop_function=0
cascade_output_change_fraction=0.010000
quickprop_decay=-0.000100
quickprop_mu=1.750000
rprop_increase_factor=1.200000
rprop_decrease_factor=0.500000
rprop_delta_min=0.000000
rprop_delta_max=50.000000
rprop_delta_zero=0.100000
cascade_output_stagnation_epochs=12
cascade_candidate_change_fraction=0.010000
cascade_candidate_stagnation_epochs=12
cascade_max_out_epochs=150
cascade_min_out_epochs=50
cascade_max_cand_epochs=150
cascade_min_cand_epochs=50
cascade_num_candidate_groups=2
bit_fail_limit=3.49999994039535522461e-01
cascade_candidate_limit=1.00000000000000000000e+03
cascade_weight_multiplier=4.00000005960464477539e-01
cascade_activation_functions_count=10
cascade_activation_functions=3 5 7 8 10 11 14 15 16 17 
cascade_activation_steepnesses_count=4
cascade_activation_steepnesses=2.50000000000000000000e-01 5.00000000000000000000e-01 7.50000000000000000000e-01 1.00000000000000000000e+00 
layer_sizes=27 14 4 
scale_included=0
neurons (num_inputs, activation_function, activation_steepness)=(0, 0, 0.00000000000000000000e+00) (0, 0, 0.00000000000000000000e+00) (0, 0, 0.00000000000000000000e+00) (0, 0, 0.00000000000000000000e+00) (0, 0, 0.00000000000000000000e+00) (0, 0, 0.00000000000000000000e+00) (0, 0, 0.00000000000000000000e+00) (0, 0, 0.00000000000000000000e+00) (0, 0, 0.00000000000000000000e+00) (0, 0, 0.00000000000000000000e+00) (0, 0, 0.00000000000000000000e+00) (0, 0, 0.00000000000000000000e+00) (0, 0, 0.00000000000000000000e+00) (0, 0, 0.00000000000000000000e+00) (0, 0, 0.00000000000000000000e+00) (0, 0, 0.00000000000000000000e+00) (0, 0, 0.00000000000000000000e+00) (0, 0, 0.00000000000000000000e+00) (0, 0, 0.00000000000000000000e+00) (0, 0, 0.00000000000000000000e+00) (0, 0, 0.00000000000000000000e+00) (0, 0, 0.00000000000000000000e+00) (0, 0, 0.00000000000000000000e+00) (0, 0, 0.00000000000000000000e+00) (0, 0, 0.00000000000000000000e+00) (0, 0, 0.00000000000000000000e+00) (0, 0, 0.00000000000000000000e+00) (27, 4, 5.00000000000000000000e-01) (27, 4, 5.00000000000000000000e-01) (27, 4, 5.00000000000000000000e-01) (27, 4, 5.00000000000000000000e-01) (27, 4, 5.00000000000000000000e-01) (27, 4, 5.00000000000000000000e-01) (27, 4, 5.00000000000000000000e-01) (27, 4, 5.00000000000000000000e-01) (27, 4, 5.00000000000000000000e-01) (27, 4, 5.00000000000000000000e-01) (27, 4, 5.00000000000000000000e-01) (27, 4, 5.00000000000000000000e-01) (27, 4, 5.00000000000000000000e-01) (0, 0, 0.00000000000000000000e+00) (14, 4, 5.00000000000000000000e-01) (14, 4, 5.00000000000000000000e-01) (14, 4, 5.00000000000000000000e-01) (0, 0, 0.00000000000000000000e+00) 
connections (connected_to_neuron, weight)=(0, 3.54623413085937500000e+00) (1, 8.53722286224365234375e+00) (2, 3.60307693481445312500e+00) (3, 3.64524841308593750000e+00) (4, -2.33543872833251953125e+00) (5, 1.82986748218536376953e+00) (6, 5.29770374298095703125e-01) (7, 9.78389358520507812500e+00) (8, 4.98146444559097290039e-01) (9, -2.44655370712280273438e+00) (10, 1.09003043174743652344e+00) (11, 7.47553229331970214844e-01) (12, 1.25695610046386718750e+00) (13, 9.44612264633178710938e-01) (14, 3.81588339805603027344e+00) (15, -2.42684125900268554688e+00) (16, 2.58421748876571655273e-01) (17, 4.40924495458602905273e-01) (18, 1.24376021325588226318e-01) (19, -3.50137412548065185547e-01) (20, -1.88906955718994140625e+01) (21, -2.35608816146850585938e+00) (22, 1.59120149612426757812e+01) (23, -2.43211959838867187500e+02) (24, 2.14511814117431640625e+01) (25, 1.17703027725219726562e+01) (26, 8.22152137756347656250e-01) (0, -4.31634473800659179688e+00) (1, 9.86112022399902343750e+00) (2, -3.64996254444122314453e-01) (3, -1.26508742570877075195e-01) (4, -1.40771853923797607422e+00) (5, 2.24743347167968750000e+01) (6, 9.88171958923339843750e+00) (7, 2.72562923431396484375e+01) (8, 3.68290320038795471191e-02) (9, -6.52472610473632812500e+01) (10, 4.21216239929199218750e+01) (11, -1.85610523223876953125e+01) (12, -5.28212249279022216797e-01) (13, 2.34935298562049865723e-01) (14, 2.35845178365707397461e-01) (15, -7.86526727676391601562e+00) (16, -6.51929397583007812500e+01) (17, 2.42573931813240051270e-01) (18, -4.26298379898071289062e-01) (19, 9.02360248565673828125e+00) (20, -1.36757831573486328125e+01) (21, -4.70156669616699218750e-01) (22, 1.65294860839843750000e+02) (23, -7.37342166900634765625e+00) (24, 1.84287948608398437500e+01) (25, -6.62294845581054687500e+01) (26, 2.63331353664398193359e-01) (0, 1.03791296482086181641e+00) (1, 1.20731651782989501953e+00) (2, 1.22086966037750244141e+00) (3, 9.46696698665618896484e-02) (4, -9.87100243568420410156e-01) (5, 2.75052261352539062500e+00) (6, 1.35060977935791015625e+00) (7, 2.97483146190643310547e-01) (8, 1.64144799113273620605e-01) (9, -3.28181147575378417969e-01) (10, 4.15025413036346435547e-01) (11, -9.80673134326934814453e-02) (12, -8.05602222681045532227e-02) (13, 1.00600674748420715332e-01) (14, 7.78050005435943603516e-01) (15, -3.69474828243255615234e-01) (16, -3.35629177093505859375e+00) (17, 4.42749354988336563110e-03) (18, -3.80247712135314941406e-01) (19, -8.48998308181762695312e-01) (20, -9.34194326400756835938e-01) (21, -9.13021802902221679688e-01) (22, 1.75178394317626953125e+01) (23, -4.06389379501342773438e+00) (24, 5.62031364440917968750e+00) (25, 1.04571029663085937500e+02) (26, 3.77994552254676818848e-02) (0, 3.63965301513671875000e+01) (1, -8.68361854553222656250e+00) (2, 1.54809446334838867188e+01) (3, 2.21256804466247558594e+00) (4, 1.22661069035530090332e-01) (5, -8.12994308471679687500e+01) (6, -1.98602237701416015625e+01) (7, -3.38561019897460937500e+01) (8, 6.75623357295989990234e-01) (9, 6.61753797531127929688e+00) (10, -5.15259552001953125000e+01) (11, 1.36878478527069091797e+00) (12, 6.83466672897338867188e-01) (13, 6.23211383819580078125e-01) (14, 8.06214141845703125000e+00) (15, 3.57646107673645019531e-01) (16, 6.60211610794067382812e+00) (17, 6.42826139926910400391e-01) (18, 1.75047054886817932129e-01) (19, -8.13283767700195312500e+01) (20, 1.91089197993278503418e-01) (21, -3.62705856561660766602e-01) (22, -5.15564270019531250000e+01) (23, -8.47085571289062500000e+01) (24, 7.03857994079589843750e+00) (25, 3.27329467773437500000e+02) (26, 6.65731549263000488281e-01) (0, 2.51647701263427734375e+01) (1, 3.94281089305877685547e-01) (2, 2.83042755126953125000e+01) (3, 4.56359195709228515625e+00) (4, -6.03069663047790527344e-02) (5, -2.03110198974609375000e+01) (6, -2.03978385925292968750e+01) (7, -1.73927516937255859375e+01) (8, 5.12585759162902832031e-01) (9, 7.43407487869262695312e-01) (10, -3.73548049926757812500e+01) (11, 7.61480093002319335938e-01) (12, 3.08273077011108398438e-01) (13, 9.96660888195037841797e-01) (14, 2.83217849731445312500e+01) (15, 7.03355908393859863281e-01) (16, 1.06788482666015625000e+01) (17, 3.58617424964904785156e-01) (18, 3.80109190940856933594e-01) (19, -4.89180145263671875000e+01) (20, -1.21182751655578613281e+00) (21, 5.37614561617374420166e-02) (22, -1.26531257629394531250e+01) (23, -4.04552032470703125000e+02) (24, 4.28507041931152343750e+00) (25, 1.61265151977539062500e+02) (26, 4.62580263614654541016e-01) (0, -1.27747392654418945312e+00) (1, -5.40149450302124023438e-01) (2, -2.36390352249145507812e+00) (3, -1.64293885231018066406e-01) (4, 4.24934959411621093750e+00) (5, 5.05828523635864257812e+00) (6, -1.09017813205718994141e+00) (7, 6.97271776199340820312e+00) (8, 4.76618185639381408691e-02) (9, 5.41933917999267578125e+00) (10, 4.34823846817016601562e+00) (11, 2.38480114936828613281e+00) (12, 2.52515053749084472656e+00) (13, -1.95751726627349853516e-01) (14, -3.69760475158691406250e+01) (15, 2.33580231666564941406e+00) (16, 1.18003559112548828125e+01) (17, 9.19565141201019287109e-01) (18, 4.73212337493896484375e+00) (19, 1.21243464946746826172e+00) (20, 1.01193561553955078125e+01) (21, 4.31624412536621093750e+00) (22, -6.65647125244140625000e+00) (23, 8.60497436523437500000e+01) (24, -5.76221275329589843750e+01) (25, -1.03271074295043945312e+01) (26, 8.11695635318756103516e-01) (0, 8.57732653617858886719e-01) (1, 2.13301539421081542969e+00) (2, 3.91898185014724731445e-01) (3, -7.57153034210205078125e-02) (4, -8.27265024185180664062e-01) (5, 2.65136432647705078125e+00) (6, 1.20777678489685058594e+00) (7, 9.58570241928100585938e-01) (8, 5.50971254706382751465e-02) (9, -1.21901726722717285156e+00) (10, 1.56527233123779296875e+00) (11, -9.02673900127410888672e-02) (12, 1.26823214814066886902e-02) (13, 1.42459750175476074219e-01) (14, 6.49351060390472412109e-01) (15, -4.20106887817382812500e-01) (16, -4.32944965362548828125e+00) (17, -5.16989007592201232910e-02) (18, -2.96776413917541503906e-01) (19, 7.39290356636047363281e-01) (20, -9.88172411918640136719e-01) (21, -3.09121072292327880859e-01) (22, 4.26111221313476562500e+01) (23, -4.06789731979370117188e+00) (24, 2.82275695800781250000e+01) (25, 4.38495864868164062500e+01) (26, -1.01597895845770835876e-02) (0, 5.38620948791503906250e-01) (1, -1.61022987365722656250e+01) (2, 5.51038265228271484375e-01) (3, 1.21456921100616455078e+00) (4, 1.32691717147827148438e+00) (5, -2.30671520233154296875e+01) (6, -1.61474475860595703125e+01) (7, -3.26615066528320312500e+01) (8, 1.39553189277648925781e+00) (9, 1.57990102767944335938e+01) (10, -7.92528991699218750000e+01) (11, 6.44362211227416992188e+00) (12, 3.05353498458862304688e+00) (13, 1.00576186180114746094e+00) (14, 6.76703393459320068359e-01) (15, 6.44616842269897460938e+00) (16, 2.31987762451171875000e+01) (17, 3.13653564453125000000e+00) (18, 3.05071830749511718750e+00) (19, -1.30415782928466796875e+01) (20, 1.58170099258422851562e+01) (21, 3.07163095474243164062e+00) (22, -1.18930412292480468750e+02) (23, 5.78546714782714843750e+00) (24, -1.89979934692382812500e+01) (25, 1.62374362945556640625e+01) (26, 3.10901403427124023438e+00) (0, -1.06146316528320312500e+01) (1, 2.19554543495178222656e-01) (2, -1.07159080505371093750e+01) (3, -3.79607129096984863281e+00) (4, -4.72488194704055786133e-01) (5, 5.92110710144042968750e+01) (6, 1.06260907649993896484e+00) (7, 2.56402923583984375000e+02) (8, -8.98799419403076171875e-01) (9, -1.56834945678710937500e+01) (10, 3.77154113769531250000e+02) (11, -2.40279412269592285156e+00) (12, -6.84886217117309570312e-01) (13, -1.35056689381599426270e-01) (14, -4.24573564529418945312e+00) (15, -1.62250864505767822266e+00) (16, -5.64801445007324218750e+01) (17, -2.18323901295661926270e-01) (18, 1.14082872867584228516e-01) (19, 3.45070552825927734375e+00) (20, 8.11175060272216796875e+00) (21, 8.12182575464248657227e-02) (22, 3.77047912597656250000e+02) (23, 1.89639818668365478516e+00) (24, -9.89487991333007812500e+01) (25, -4.64327484130859375000e+02) (26, -7.89002999663352966309e-02) (0, 1.84899821877479553223e-01) (1, -3.29154062271118164062e+00) (2, -2.46621966361999511719e-01) (3, 2.84871399402618408203e-01) (4, 3.91748809814453125000e+00) (5, 5.68759584426879882812e+00) (6, -1.06774234771728515625e+00) (7, -8.55797672271728515625e+00) (8, -4.12767305970191955566e-02) (9, 6.39341259002685546875e+00) (10, -5.25390911102294921875e+00) (11, 2.83354067802429199219e+00) (12, 6.07131659984588623047e-01) (13, -1.08959019184112548828e-01) (14, -1.44394505023956298828e+00) (15, 2.90772509574890136719e+00) (16, 5.43970155715942382812e+00) (17, 2.05336064100265502930e-02) (18, 6.67990148067474365234e-01) (19, -7.50099793076515197754e-02) (20, 1.21033897399902343750e+01) (21, 2.65146827697753906250e+00) (22, -3.28948974609375000000e+01) (23, 1.35703399658203125000e+02) (24, -1.18931266784667968750e+02) (25, -5.93012928962707519531e-01) (26, -5.13058304786682128906e-02) (0, 2.70164221525192260742e-01) (1, -3.30678367614746093750e+00) (2, 6.17214292287826538086e-02) (3, 3.16958963871002197266e-01) (4, 4.52602863311767578125e+00) (5, -8.88711810111999511719e-01) (6, -3.15140986442565917969e+00) (7, -7.71609115600585937500e+00) (8, 1.23909258842468261719e+00) (9, 6.36133956909179687500e+00) (10, -7.30153179168701171875e+00) (11, 2.29560089111328125000e+00) (12, 2.19797801971435546875e+00) (13, -2.58206695318222045898e-01) (14, -5.45321273803710937500e+00) (15, 2.12572503089904785156e+00) (16, 6.38913917541503906250e+00) (17, 2.06634449958801269531e+00) (18, 2.17936038970947265625e+00) (19, -3.97195994853973388672e-01) (20, 1.18193836212158203125e+01) (21, 4.52164936065673828125e+00) (22, -3.29199676513671875000e+01) (23, 5.65967330932617187500e+01) (24, -4.94689598083496093750e+01) (25, -2.42539405822753906250e+00) (26, 2.36042998731136322021e-02) (0, 8.35274791717529296875e+00) (1, 4.61911582946777343750e+00) (2, 8.39512729644775390625e+00) (3, 3.57043933868408203125e+00) (4, -9.19273376464843750000e-01) (5, 2.47255253791809082031e+00) (6, 4.80809152126312255859e-01) (7, 6.78285646438598632812e+00) (8, 3.83531928062438964844e-01) (9, -1.52611088752746582031e+00) (10, 9.73129987716674804688e-01) (11, 3.55071693658828735352e-01) (12, 4.39314186573028564453e-01) (13, 2.91671574115753173828e-01) (14, 3.93476271629333496094e+00) (15, -2.20207643508911132812e+00) (16, 1.28347182273864746094e+00) (17, 3.26680004596710205078e-01) (18, -7.12109565734863281250e-01) (19, -1.24258339405059814453e-01) (20, -2.80596790313720703125e+01) (21, -8.99993181228637695312e-01) (22, 3.72270812988281250000e+01) (23, -2.43168746948242187500e+02) (24, 2.14417171478271484375e+01) (25, 1.18658571243286132812e+01) (26, 3.65102767944335937500e-01) (0, -7.17632341384887695312e+00) (1, 3.85497164726257324219e+00) (2, -8.68695139884948730469e-01) (3, -1.54976558685302734375e+00) (4, -4.24011051654815673828e-01) (5, 4.04112510681152343750e+01) (6, 6.77335214614868164062e+00) (7, 4.07935218811035156250e+01) (8, -4.32920426130294799805e-01) (9, -7.34516572952270507812e+00) (10, 1.60016540527343750000e+02) (11, -3.64894700050354003906e+00) (12, -4.46544319391250610352e-01) (13, -3.77146244049072265625e-01) (14, -2.53070920705795288086e-01) (15, -1.88718914985656738281e+00) (16, -2.85483169555664062500e+01) (17, -2.22274139523506164551e-01) (18, -3.72821033000946044922e-01) (19, 6.81504869461059570312e+00) (20, -7.72620153427124023438e+00) (21, -3.28361064195632934570e-01) (22, 1.59982406616210937500e+02) (23, 8.36402511596679687500e+00) (24, 1.74006233215332031250e+01) (25, -3.02485485076904296875e+01) (26, -2.34924688935279846191e-01) (27, 1.08103847503662109375e+00) (28, 4.20448398590087890625e+00) (29, 1.75058841705322265625e-03) (30, 1.52181148529052734375e+00) (31, -1.56884098052978515625e+00) (32, -1.56631612777709960938e+00) (33, 1.94548726081848144531e-01) (34, -3.62579107284545898438e+00) (35, 1.71164226531982421875e+00) (36, -1.61682033538818359375e+00) (37, -1.55733060836791992188e+00) (38, 1.08217668533325195312e+00) (39, 1.14106774330139160156e+00) (40, -1.19603596627712249756e-01) (27, -4.23129272460937500000e+00) (28, -1.04223835468292236328e+00) (29, -5.69599159061908721924e-02) (30, -6.97111845016479492188e-01) (31, -1.50553762912750244141e+00) (32, 9.72182178497314453125e+00) (33, -8.25001373887062072754e-02) (34, 2.86352992057800292969e-01) (35, 2.93999731540679931641e-01) (36, 5.06587147712707519531e-01) (37, 5.34878194332122802734e-01) (38, -5.05487394332885742188e+00) (39, -1.91980302333831787109e-01) (40, 4.74651455879211425781e-02) (27, 1.58195686340332031250e+00) (28, -1.56285405158996582031e+00) (29, 2.71913595497608184814e-02) (30, 2.23093414306640625000e+00) (31, 2.14769554138183593750e+00) (32, -3.26781690120697021484e-01) (33, 1.54941370710730552673e-02) (34, 5.50392806529998779297e-01) (35, -1.03431291580200195312e+01) (36, 1.90000012516975402832e-01) (37, 2.62721240520477294922e-01) (38, 1.57889652252197265625e+00) (39, -1.70816242694854736328e+00) (40, 3.11514645814895629883e-01) 
