FANN_FLO_2.1
num_layers=3
learning_rate=0.700000
connection_rate=1.000000
network_type=0
learning_momentum=0.000000
training_algorithm=2
train_error_function=1
train_stop_function=0
cascade_output_change_fraction=0.010000
quickprop_decay=-0.000100
quickprop_mu=1.750000
rprop_increase_factor=1.200000
rprop_decrease_factor=0.500000
rprop_delta_min=0.000000
rprop_delta_max=50.000000
rprop_delta_zero=0.100000
cascade_output_stagnation_epochs=12
cascade_candidate_change_fraction=0.010000
cascade_candidate_stagnation_epochs=12
cascade_max_out_epochs=150
cascade_min_out_epochs=50
cascade_max_cand_epochs=150
cascade_min_cand_epochs=50
cascade_num_candidate_groups=2
bit_fail_limit=3.49999994039535522461e-01
cascade_candidate_limit=1.00000000000000000000e+03
cascade_weight_multiplier=4.00000005960464477539e-01
cascade_activation_functions_count=10
cascade_activation_functions=3 5 7 8 10 11 14 15 16 17 
cascade_activation_steepnesses_count=4
cascade_activation_steepnesses=2.50000000000000000000e-01 5.00000000000000000000e-01 7.50000000000000000000e-01 1.00000000000000000000e+00 
layer_sizes=27 14 4 
scale_included=0
neurons (num_inputs, activation_function, activation_steepness)=(0, 0, 0.00000000000000000000e+00) (0, 0, 0.00000000000000000000e+00) (0, 0, 0.00000000000000000000e+00) (0, 0, 0.00000000000000000000e+00) (0, 0, 0.00000000000000000000e+00) (0, 0, 0.00000000000000000000e+00) (0, 0, 0.00000000000000000000e+00) (0, 0, 0.00000000000000000000e+00) (0, 0, 0.00000000000000000000e+00) (0, 0, 0.00000000000000000000e+00) (0, 0, 0.00000000000000000000e+00) (0, 0, 0.00000000000000000000e+00) (0, 0, 0.00000000000000000000e+00) (0, 0, 0.00000000000000000000e+00) (0, 0, 0.00000000000000000000e+00) (0, 0, 0.00000000000000000000e+00) (0, 0, 0.00000000000000000000e+00) (0, 0, 0.00000000000000000000e+00) (0, 0, 0.00000000000000000000e+00) (0, 0, 0.00000000000000000000e+00) (0, 0, 0.00000000000000000000e+00) (0, 0, 0.00000000000000000000e+00) (0, 0, 0.00000000000000000000e+00) (0, 0, 0.00000000000000000000e+00) (0, 0, 0.00000000000000000000e+00) (0, 0, 0.00000000000000000000e+00) (0, 0, 0.00000000000000000000e+00) (27, 4, 5.00000000000000000000e-01) (27, 4, 5.00000000000000000000e-01) (27, 4, 5.00000000000000000000e-01) (27, 4, 5.00000000000000000000e-01) (27, 4, 5.00000000000000000000e-01) (27, 4, 5.00000000000000000000e-01) (27, 4, 5.00000000000000000000e-01) (27, 4, 5.00000000000000000000e-01) (27, 4, 5.00000000000000000000e-01) (27, 4, 5.00000000000000000000e-01) (27, 4, 5.00000000000000000000e-01) (27, 4, 5.00000000000000000000e-01) (27, 4, 5.00000000000000000000e-01) (0, 0, 0.00000000000000000000e+00) (14, 4, 5.00000000000000000000e-01) (14, 4, 5.00000000000000000000e-01) (14, 4, 5.00000000000000000000e-01) (0, 0, 0.00000000000000000000e+00) 
connections (connected_to_neuron, weight)=(0, -8.86353969573974609375e-01) (1, 2.76492595672607421875e+00) (2, 4.11407828330993652344e-01) (3, -1.98870933055877685547e+00) (4, -3.81753301620483398438e+00) (5, 1.39367651939392089844e+00) (6, 2.02897429466247558594e+00) (7, 1.62019276618957519531e+00) (8, 1.09728252887725830078e+00) (9, -9.12085533142089843750e+00) (10, -1.73295009136199951172e+00) (11, -3.69031238555908203125e+00) (12, -7.68664216995239257812e+00) (13, 1.08249199390411376953e+00) (14, 1.22111206054687500000e+01) (15, -6.47819328308105468750e+00) (16, -3.70567178726196289062e+00) (17, -1.35027658939361572266e+00) (18, -8.45583629608154296875e+00) (19, 3.54667276144027709961e-01) (20, -1.35682802200317382812e+01) (21, -3.94505572319030761719e+00) (22, 1.08147311210632324219e+00) (23, -2.65948677062988281250e+01) (24, 5.05299797058105468750e+01) (25, 1.10740938186645507812e+01) (26, 1.08517301082611083984e+00) (0, -2.65225105285644531250e+01) (1, 5.49410390853881835938e+00) (2, -2.64925918579101562500e+01) (3, -1.41882741451263427734e+00) (4, 2.64049983024597167969e+00) (5, 1.55932760238647460938e+01) (6, 1.55996122360229492188e+01) (7, 1.62901363372802734375e+01) (8, 2.27565717697143554688e+00) (9, -1.30016934871673583984e+00) (10, 1.23802467346191406250e+02) (11, -1.45767247676849365234e+00) (12, 9.24402117729187011719e-01) (13, 2.27048730850219726562e+00) (14, -1.45992918014526367188e+01) (15, -1.34116411209106445312e+00) (16, -4.29127073287963867188e+00) (17, 2.23256540298461914062e+00) (18, 9.49191689491271972656e-01) (19, 1.56540594100952148438e+01) (20, 9.78813230991363525391e-01) (21, 2.53551554679870605469e+00) (22, 9.83490447998046875000e+01) (23, 9.73589172363281250000e+01) (24, -3.01538314819335937500e+01) (25, -1.57624511718750000000e+02) (26, 2.39943480491638183594e+00) (0, 2.00093698501586914062e+00) (1, 3.05610322952270507812e+00) (2, 2.36945438385009765625e+00) (3, 4.87687259912490844727e-01) (4, -6.55451297760009765625e+00) (5, 1.74168586730957031250e+00) (6, 1.34583163261413574219e+00) (7, 3.06902337074279785156e+00) (8, 7.44413971900939941406e-01) (9, -8.98115158081054687500e+00) (10, 9.53446149826049804688e-01) (11, -4.71341705322265625000e+00) (12, -9.86829936504364013672e-01) (13, 4.67924547195434570312e+00) (14, 2.29444255828857421875e+01) (15, -5.86866950988769531250e+00) (16, -2.73611354827880859375e+00) (17, 4.84123200178146362305e-01) (18, -5.79855060577392578125e+00) (19, 4.36238646507263183594e-01) (20, -1.36005735397338867188e+01) (21, -6.45848560333251953125e+00) (22, 5.31294965744018554688e+00) (23, -5.22917480468750000000e+02) (24, 6.27244567871093750000e+01) (25, 2.05436706542968750000e+00) (26, 7.84479320049285888672e-01) (0, -5.67887544631958007812e-01) (1, 1.69546961784362792969e+00) (2, 4.26495745778083801270e-02) (3, -5.42280375957489013672e-01) (4, -3.15992236137390136719e+00) (5, 1.27732968330383300781e+00) (6, 1.15473651885986328125e+00) (7, 1.08862752914428710938e+01) (8, -2.99642443656921386719e-01) (9, -2.45796909332275390625e+01) (10, 7.03829717636108398438e+00) (11, -5.63243961334228515625e+00) (12, -6.48658633232116699219e-01) (13, 1.95079863071441650391e-01) (14, 6.31314325332641601562e+00) (15, -6.39976263046264648438e+00) (16, -2.08587055206298828125e+01) (17, 2.30324655771255493164e-01) (18, -1.52460587024688720703e+00) (19, 1.30611991882324218750e+00) (20, -3.00450592041015625000e+01) (21, -3.03611207008361816406e+00) (22, 3.54641036987304687500e+01) (23, -6.28724250793457031250e+01) (24, 1.23708297729492187500e+02) (25, 5.00636577606201171875e+00) (26, 2.53857254981994628906e-01) (0, -4.28770494461059570312e+00) (1, 2.52063107490539550781e+00) (2, -1.09140896797180175781e+00) (3, -4.18147802352905273438e-01) (4, -2.89251875877380371094e+00) (5, 4.00493574142456054688e+00) (6, 1.24446952342987060547e+00) (7, 5.25207405090332031250e+01) (8, -7.43035912513732910156e-01) (9, -3.81847190856933593750e+01) (10, 7.09558486938476562500e+01) (11, -7.81592035293579101562e+00) (12, -7.82090067863464355469e-01) (13, -1.50393292307853698730e-01) (14, 4.14906084537506103516e-01) (15, -7.72542047500610351562e+00) (16, -3.81879920959472656250e+01) (17, -4.85614031553268432617e-01) (18, -1.74212455749511718750e+00) (19, 1.37212717533111572266e+00) (20, -2.88804740905761718750e+01) (21, -2.97273993492126464844e+00) (22, 1.14657020568847656250e+02) (23, -4.13132095336914062500e+00) (24, -8.57007217407226562500e+00) (25, -7.34680461883544921875e+00) (26, -1.39321729540824890137e-01) (0, 2.17689871788024902344e+00) (1, -2.31961607933044433594e+00) (2, 2.15888094902038574219e+00) (3, 2.23533797264099121094e+00) (4, 5.77871024608612060547e-01) (5, -2.84810185432434082031e+00) (6, -2.74983286857604980469e+00) (7, -1.82115993499755859375e+01) (8, 3.29144477844238281250e-01) (9, 6.99550104141235351562e+00) (10, -3.22872352600097656250e+01) (11, 7.12089872360229492188e+00) (12, 4.49297875165939331055e-01) (13, 2.84233361482620239258e-01) (14, 5.63158273696899414062e-01) (15, 2.42513942718505859375e+00) (16, 2.69524002075195312500e+01) (17, 2.90282458066940307617e-01) (18, 4.36050385236740112305e-01) (19, -1.34911298751831054688e+00) (20, 2.23792815208435058594e+00) (21, 4.05814439058303833008e-01) (22, -3.71541748046875000000e+01) (23, 6.59030139446258544922e-01) (24, 2.80526638031005859375e+00) (25, 2.86185493469238281250e+01) (26, 3.16216766834259033203e-01) (0, 3.96560847759246826172e-01) (1, -2.11755800247192382812e+00) (2, 3.12957584857940673828e-01) (3, 5.57959556579589843750e-01) (4, 2.16214537620544433594e+00) (5, 1.19033849239349365234e+00) (6, -7.21411705017089843750e-01) (7, 8.93456041812896728516e-01) (8, 5.75003743171691894531e-01) (9, 1.82189311981201171875e+01) (10, 1.31316862106323242188e+01) (11, 1.64446997642517089844e+00) (12, 6.91297888755798339844e-01) (13, 5.93427002429962158203e-01) (14, -1.39875173568725585938e+00) (15, 3.40214037895202636719e+00) (16, 1.25437211990356445312e+01) (17, 5.45831084251403808594e-01) (18, 1.01763176918029785156e+00) (19, 2.24653506278991699219e+00) (20, 2.87330932617187500000e+01) (21, 2.03581237792968750000e+00) (22, 1.47006282806396484375e+01) (23, 2.47365322113037109375e+01) (24, -9.42737426757812500000e+01) (25, 3.98928344249725341797e-01) (26, 5.21400392055511474609e-01) (0, 1.15554714202880859375e+01) (1, 2.42860603332519531250e+00) (2, 1.17086067199707031250e+01) (3, 3.85458087921142578125e+00) (4, -7.60012769699096679688e+00) (5, 1.78786262869834899902e-01) (6, 2.13417196273803710938e+00) (7, 3.75954747200012207031e-01) (8, 9.95964586734771728516e-01) (9, -4.39867591857910156250e+00) (10, 2.96396136283874511719e-01) (11, -4.83211612701416015625e+00) (12, -2.39521288871765136719e+00) (13, 2.96384310722351074219e+00) (14, 9.96393013000488281250e+00) (15, -6.38278770446777343750e+00) (16, -2.71667242050170898438e+00) (17, 4.43612128496170043945e-01) (18, -6.46247673034667968750e+00) (19, -9.93285894393920898438e-01) (20, -2.14241542816162109375e+01) (21, -7.67671823501586914062e+00) (22, 3.30617785453796386719e-01) (23, -5.22864685058593750000e+02) (24, 2.37377376556396484375e+01) (25, 2.40458343505859375000e+02) (26, 1.01855182647705078125e+00) (0, 3.57694816589355468750e+00) (1, -6.55690813064575195312e+00) (2, 2.28066182136535644531e+00) (3, 4.71806001663208007812e+00) (4, 3.40436005592346191406e+00) (5, -4.10221719741821289062e+00) (6, -2.78725934028625488281e+00) (7, -2.54106845855712890625e+01) (8, 4.84894371032714843750e+00) (9, 1.12852363586425781250e+01) (10, -2.55653934478759765625e+01) (11, 1.01926207542419433594e+00) (12, 1.89860057830810546875e+00) (13, 3.33994317054748535156e+00) (14, -1.47372174263000488281e+00) (15, 1.13080577850341796875e+01) (16, 2.82694320678710937500e+01) (17, 2.06869077682495117188e+00) (18, 1.06419253349304199219e+00) (19, -7.63397693634033203125e-01) (20, 1.13470172882080078125e+01) (21, 3.31994891166687011719e+00) (22, -5.61545181274414062500e+01) (23, 1.13349552154541015625e+01) (24, -5.48253707885742187500e+01) (25, 1.38582623004913330078e+00) (26, 1.92705869674682617188e+00) (0, -3.12230020761489868164e-01) (1, 1.44558155536651611328e+00) (2, 3.41363191604614257812e-01) (3, -8.16557347774505615234e-01) (4, -8.33450889587402343750e+00) (5, 6.67134046554565429688e-01) (6, 7.52949237823486328125e-01) (7, 1.02382545471191406250e+01) (8, 6.05277940630912780762e-02) (9, -5.46854639053344726562e+00) (10, 1.74317626953125000000e+01) (11, -5.45958089828491210938e+00) (12, -1.10064911842346191406e+00) (13, 1.98444724082946777344e-01) (14, 6.56468987464904785156e-01) (15, -5.40404081344604492188e+00) (16, -1.05694646835327148438e+01) (17, 9.46394130587577819824e-02) (18, -1.94835412502288818359e+00) (19, 1.75965815782546997070e-01) (20, -8.98665142059326171875e+00) (21, -3.11073231697082519531e+00) (22, 9.54682464599609375000e+01) (23, -5.39740028381347656250e+01) (24, 2.05538387298583984375e+01) (25, -3.94956082105636596680e-01) (26, 1.73507392406463623047e-01) (0, 2.27849936485290527344e+00) (1, -6.92027628421783447266e-01) (2, 2.38415646553039550781e+00) (3, 1.14870905876159667969e+00) (4, 5.66923797130584716797e-01) (5, -2.85676145553588867188e+00) (6, -1.04175806045532226562e+00) (7, -3.23034629821777343750e+01) (8, 3.57351005077362060547e-01) (9, 7.08712911605834960938e+00) (10, -4.91097030639648437500e+01) (11, 3.13897013664245605469e+00) (12, 5.63107848167419433594e-01) (13, 2.91011393070220947266e-01) (14, 5.90986847877502441406e-01) (15, 3.18210959434509277344e+00) (16, 1.66840686798095703125e+01) (17, 3.97134512662887573242e-01) (18, 5.56901931762695312500e-01) (19, -1.38839197158813476562e+00) (20, 2.11469578742980957031e+00) (21, 5.43871343135833740234e-01) (22, -4.89744491577148437500e+01) (23, 8.31451416015625000000e-01) (24, 3.58946180343627929688e+00) (25, 2.85512733459472656250e+01) (26, 2.59099245071411132812e-01) (0, 1.61940059661865234375e+01) (1, 5.32287359237670898438e-01) (2, 1.62066593170166015625e+01) (3, 2.42618799209594726562e+00) (4, -2.59217929840087890625e+00) (5, -7.55948162078857421875e+00) (6, -7.79225206375122070312e+00) (7, -7.44869661331176757812e+00) (8, 3.64159631729125976562e+00) (9, 8.14054012298583984375e-01) (10, -7.29627132415771484375e+00) (11, 1.17189955711364746094e+00) (12, 2.90150642395019531250e+00) (13, 3.71414518356323242188e+00) (14, 1.69215145111083984375e+01) (15, 5.11485219001770019531e-01) (16, 4.08491671085357666016e-01) (17, 7.81515836715698242188e-01) (18, 6.89973980188369750977e-02) (19, -4.17664604187011718750e+01) (20, -1.57465972900390625000e+01) (21, -4.14721393585205078125e+00) (22, -1.65896749496459960938e+00) (23, -7.94646789550781250000e+02) (24, 2.86818618774414062500e+01) (25, 1.90618545532226562500e+02) (26, 1.09864413738250732422e+00) (0, 7.54413083195686340332e-02) (1, 1.29909530282020568848e-01) (2, 1.26885652542114257812e-01) (3, 4.50542092323303222656e-01) (4, 2.82843160629272460938e+00) (5, 2.20569729804992675781e+00) (6, 9.80957001447677612305e-02) (7, 4.26971435546875000000e+00) (8, 4.72323864698410034180e-01) (9, 6.41530942916870117188e+00) (10, 1.41207733154296875000e+01) (11, 1.29057109355926513672e+00) (12, 7.01976358890533447266e-01) (13, 5.19424915313720703125e-01) (14, -7.42442989349365234375e+00) (15, 2.78541612625122070312e+00) (16, 9.59356403350830078125e+00) (17, 5.95204770565032958984e-01) (18, 1.07148420810699462891e+00) (19, 6.27890050411224365234e-01) (20, 1.26290044784545898438e+01) (21, 1.68298244476318359375e+00) (22, 3.43742585182189941406e+00) (23, 6.50744247436523437500e+01) (24, -1.05957084655761718750e+02) (25, -5.92438817024230957031e-01) (26, 5.02068519592285156250e-01) (27, 5.94500184059143066406e-01) (28, 9.16469097137451171875e-01) (29, 7.05868959426879882812e-01) (30, 4.06255769729614257812e+00) (31, 4.05957269668579101562e+00) (32, -2.28263330459594726562e+00) (33, -2.24749898910522460938e+00) (34, 6.56816363334655761719e-01) (35, -2.14139986038208007812e+00) (36, 8.79855036735534667969e-01) (37, -2.26482677459716796875e+00) (38, -4.52073365449905395508e-01) (39, -6.02492809295654296875e-01) (40, -5.14911770820617675781e-01) (27, -7.92553663253784179688e-01) (28, 3.62792468070983886719e+00) (29, -4.73313283920288085938e+00) (30, -1.94847226142883300781e+00) (31, -1.57471203804016113281e+00) (32, 3.90799909830093383789e-01) (33, 1.17483377456665039062e+00) (34, -4.75619840621948242188e+00) (35, 1.23256945610046386719e+00) (36, -5.32200515270233154297e-01) (37, 4.11287486553192138672e-01) (38, -1.39743065834045410156e+00) (39, 6.25367045402526855469e-01) (40, 5.45346498489379882812e-01) (27, 6.86461329460144042969e-01) (28, -9.40717601776123046875e+00) (29, 3.20623070001602172852e-01) (30, 1.49714037775993347168e-01) (31, -1.27890610694885253906e+00) (32, 4.72030133008956909180e-01) (33, 1.15968309342861175537e-01) (34, 1.94045519828796386719e+00) (35, 4.61415171623229980469e-01) (36, -1.13357886672019958496e-01) (37, 6.98552787303924560547e-01) (38, 4.55451583862304687500e+00) (39, -9.65011045336723327637e-02) (40, -1.53805077075958251953e-01) 
